505 10
ED -0.02201 -0.00232 -0.00495 0.00189 0.01706 -0.00409 -0.00385 0.00017 -0.00153 -0.00679
CSCO 0.00386 0.00324 0.0045 -0.00349 -0.00452 -0.02461 0.00265 -0.0027 -0.01774 -0.00722
LVS 0.00363 -0.00559 0.06103 0.00494 -0.02016 0.00132 -0.03737 0.03782 -0.05411 0.01749
HES -0.01265 -0.01268 0.00688 0.01229 -0.08798 -0.00669 -0.01023 -0.01621 0.0 -0.00492
AIZ 0.00944 -0.00122 0.05217 -0.01339 -0.00607 -0.00316 0.01792 -0.00974 -0.00635 -0.00846
JNPR 0.0206 0.01712 0.00111 0.00311 -0.02718 0.01171 -0.00333 -0.00911 -0.00318 0.00296
BA 0.0 0.01388 0.03001 -0.00463 -0.00278 0.00559 0.00218 0.00141 -0.01629 0.01532
MDT -0.01088 0.00379 -0.01733 -0.00373 -0.0084 -0.00801 0.01184 -0.01433 0.00208 0.00979
VICI -0.02906 -0.0005 -0.0082 0.01564 -0.00523 -0.01037 -0.01071 0.00577 0.02483 0.0126
HAL 0.00603 0.01464 0.03349 -0.01083 0.0211 -0.00752 0.01029 -0.01408 0.00172 -0.01017
LOW -0.01703 -0.01425 0.00454 -0.00925 0.00252 -0.00638 -0.00651 0.00715 0.0101 0.0
ENPH -0.05184 0.02643 -0.02932 -0.05246 0.05461 -0.01 -0.02199 -0.02642 0.03335 -0.03014
IR 0.05075 -0.01088 0.03576 -0.00483 -0.02649 -0.03243 0.00776 -0.01903 -0.01263 -0.01536
ABBV -0.00664 0.00513 -0.00314 0.01456 -0.01298 -0.01793 0.0092 0.01905 0.01 0.00503
NI -0.00747 -0.01197 0.0018 0.00525 -0.00411 -0.01132 0.01327 -0.0063 -0.00129 -0.01213
OMC 0.03379 0.01122 -0.00613 -0.00873 0.01668 0.01296 0.00581 -0.01291 -0.00972 -0.00059
D -0.05047 0.03872 -0.00783 -0.01404 0.00183 0.00374 0.0 0.0107 0.01598 -0.0006
WM -0.00372 0.01124 -0.00085 -0.00485 -0.00066 -0.00864 -0.00576 0.02369 -0.00158 0.00918
FI 0.01112 0.00877 -0.00821 0.00489 0.00686 0.00509 0.00553 0.01623 -0.00256 -0.00171
CE -0.00524 0.01943 -0.01277 -0.00585 0.00729 0.03217 0.00794 0.02738 0.09179 -0.03234
CHTR -0.00755 -0.00645 0.03243 0.03159 -0.0048 -0.01013 -0.01364 0.00275 0.0106 0.00586
BIO -0.00709 -0.0018 -0.00418 -0.04258 0.00948 0.00825 0.00845 0.00242 -0.00985 -0.02363
CMG 0.00337 0.01845 -0.04321 0.01157 -0.00334 0.00015 -0.01052 -0.00153 0.01527 -0.00032
DRI 0.00871 0.00622 -0.03913 -0.01741 -0.0125 0.00293 0.0098 0.01852 0.03258 0.0077
EXPD 0.01925 0.00028 0.00149 -0.00498 0.00822 -0.01011 0.00235 0.01317 -0.0115 0.02294
IPG -0.01273 0.00556 -0.00335 -0.00384 -0.00572 -0.01065 0.01775 -0.02123 -0.00452 -0.00913
KEY -0.01228 0.00917 0.01367 0.01323 -0.00741 0.01313 0.05513 -0.00195 -0.02356 -0.00694
META 0.00457 -0.0212 0.00518 0.00331 -0.0334 -0.00175 -0.01157 0.00459 -0.01574 -0.02196
PNW -0.02215 0.00041 0.01731 0.0063 0.00385 0.00998 -0.00563 -0.01246 -0.0278 -0.00307
BKR 0.04206 0.00244 -0.03704 -0.01106 -0.03108 -0.00565 -0.01902 -0.01166 -0.02192 -0.01033
DE -0.01453 0.00537 0.0003 0.02627 -0.00247 0.01349 0.01723 -0.00145 -0.00346 -0.0108
TRMB 0.02796 0.00777 0.02293 0.01642 0.00449 0.01 0.01366 -0.00767 -0.01896 -0.0184
AMAT -0.01821 -0.01857 0.00406 0.04306 -0.00313 0.03247 -0.00227 0.01603 -0.00159 -0.00072
BLK 0.01444 -0.00368 -0.01272 -0.00176 -0.03999 0.00303 -0.00095 -0.01644 -0.00278 -0.01803
EG -0.02679 -0.02098 0.00909 -0.02151 -0.00389 0.00392 -0.01657 0.00467 0.00674 0.00082
MMM 0.00434 0.00864 -0.02844 0.00851 -0.00158 -0.00237 0.00462 -0.00363 0.0554 -0.00662
STZ -0.02408 0.01947 0.0054 0.00845 -0.00402 0.00394 0.00575 0.00522 -0.00555 -0.01681
IP 0.01437 -0.0034 -0.01179 -0.00162 -0.00706 0.01312 0.01489 0.01817 -0.02981 -0.02307
EA 0.01066 0.02175 -0.04014 -0.01125 0.00419 0.01078 -0.00497 -0.02236 -0.00432 -0.02193
WAT 0.00848 -0.00244 -0.0011 0.03113 0.01325 -0.00491 -0.00499 -0.00432 0.00744 -0.00697
AMCR 0.0 -0.00995 0.02139 0.0 0.02087 0.01676 0.0 0.0 0.0 0.05896
NOW -0.0099 0.0094 0.0223 0.00481 -0.03903 0.02525 -0.00939 0.03244 -0.01575 0.01868
BALL 0.02764 -0.00575 -0.00607 0.01576 -0.02037 -0.01151 0.0007 -0.0136 0.05993 -0.00226
EXR -0.01196 0.01209 -0.00836 -0.01528 0.00875 0.00111 -0.03464 -0.00224 0.01566 0.00127
EOG 0.02569 0.00652 0.01398 -0.00877 0.04183 0.01626 0.01777 -0.01977 0.02486 -0.00495
BKNG -0.00631 0.00252 0.00173 0.01536 -0.05791 -0.01327 0.01978 0.01349 0.00089 0.01616
SPGI 0.00135 -0.00851 0.03341 -0.00833 0.00479 -0.01424 0.00739 0.01188 0.00483 0.00597
RHI -0.01857 0.00518 -0.00528 0.01941 -0.01787 0.035 -0.03219 0.0115 -0.01938 -0.0082
JPM 0.00264 0.00955 0.00218 0.00603 -0.00243 0.0151 0.0272 -0.01411 -0.01692 -0.00266
ZBRA -0.01829 -0.00434 -0.03403 -0.00277 -0.01191 -0.00643 0.00166 0.0 0.01291 0.01324
CTVA -0.02317 -0.01 -0.01458 0.00861 0.01759 -0.01208 -0.01641 -0.00392 -0.02648 -0.01208
ROK -0.00444 0.0037 0.004 0.02115 0.00695 0.00219 -0.00044 0.00068 0.02829 0.00841
MET 0.12789 -0.00675 -0.01323 -0.00539 -0.00079 0.00133 0.0144 -0.01568 0.02468 0.01331
ANET -0.02625 0.01381 -0.005 0.00319 0.01157 0.004 -0.01239 -0.01788 0.0013 0.00239
CFG -0.01867 -0.01425 0.01142 -0.00856 0.04909 -0.00025 0.02547 -0.01391 0.01246 0.00815
NEM -0.00653 0.01893 0.00333 0.01315 -0.00322 0.00434 -0.01472 -0.016 -0.00887 0.00671
NVDA -0.02579 -0.04045 0.02718 0.00719 -0.02193 0.02923 0.01423 -0.0231 0.08176 0.00954
FRT 0.02023 0.00467 0.0125 -0.0049 -0.02551 0.00366 -0.0186 0.00041 0.04793 0.01827
AVB 7e-05 -0.002 0.0139 -0.01478 -0.00349 -0.01105 0.00214 -0.01317 -0.02697 -0.00508
ATVI -0.01058 -0.00238 -0.03305 -0.00524 -0.00811 -0.0105 -0.02122 -0.01992 -0.00912 0.08629
IFF -0.00452 -0.01738 -0.01841 -0.02086 0.00743 -0.00028 -0.00403 -0.00019 -0.00173 -0.00978
RL 0.00621 0.05052 -0.00748 -0.00603 -0.00086 -0.00945 -0.02367 0.00524 0.00066 -0.02411
GS -0.02114 0.004 0.00643 0.01933 0.01486 0.0132 -0.0041 -0.00064 0.01388 0.00417
APTV 0.00273 -0.01104 0.01418 -0.02377 -0.00032 0.0182 -0.02372 0.0119 -0.01312 -0.00864
MTD 0.00382 -0.00357 -0.00389 0.02287 0.00316 0.0174 0.00734 0.00384 -0.00941 0.01784
FDS 0.03467 -0.0072 0.00121 -0.02367 -0.00051 0.00245 -0.00029 0.01279 0.00681 -0.00893
CPB 0.00505 0.01802 0.0012 0.00355 -0.00438 0.00033 -0.0112 -0.00921 0.00653 -0.00903
CAT -0.00424 0.01026 -0.01557 0.03592 -0.05449 0.01201 -0.03202 0.04394 0.01671 -0.00417
ON -0.07873 -0.025 -0.00127 -0.01327 -0.00266 0.00413 0.01202 0.06945 -0.04608 -0.01356
SEE -0.00467 -0.00478 -0.01131 0.01279 -0.01994 -0.01066 0.02205 -0.01865 0.00211 0.00634
FFIV 0.02309 0.01785 0.0264 0.0105 -0.0119 0.04048 0.00401 0.00794 -0.0228 -0.00039
CI 0.01963 -0.00488 -0.02084 -0.00465 0.03041 -0.00139 0.00305 0.0126 0.01482 0.00816
MKC 0.00196 0.01681 0.03745 -0.00279 0.01378 0.00372 -0.01183 -0.00527 0.00037 -0.00627
TXT 0.00559 -0.00662 -0.04449 -0.00603 0.01575 0.00553 -0.00356 0.11362 -0.00509 -0.00263
IQV 0.00783 -0.00169 -0.01513 -0.02178 -0.01317 -0.01499 0.00937 0.01011 0.019 0.03131
EXC -0.01101 0.01242 -0.00196 -0.01042 -0.01591 0.01293 0.00477 -0.00169 -0.00218 0.00157
APH -0.06531 0.00264 0.00266 0.0157 0.01399 0.02293 0.00531 -0.00209 0.00558 0.00058
NKE 0.00788 -0.01107 -0.01186 0.0134 0.00089 0.00124 -0.01228 0.00475 -0.01162 0.00441
CMCSA -0.00281 -0.01857 0.01371 0.02171 -0.00385 0.01094 0.00071 0.00987 0.01202 -0.00275
LHX -0.00631 0.01699 -0.00698 0.01384 0.02111 -0.00457 -0.01782 0.02483 -0.01244 -0.00136
NTRS -0.00078 0.00272 0.00061 -0.10658 0.00177 -0.00138 0.01006 -0.01926 -0.00271 0.00838
FAST 0.00642 -0.00166 -0.00143 -0.00079 0.01729 0.00015 -0.007 -0.01647 0.00347 -0.02059
FOXA 0.00166 0.00424 0.01675 0.02706 0.00321 -0.01528 -0.00909 -0.01529 -0.02761 0.00201
PFG 0.01498 0.00821 0.00845 0.01202 -0.00356 -0.00459 0.0074 0.01693 -0.00888 0.01028
DVA -0.02342 0.00547 0.01288 -0.00386 -0.01685 -0.00073 0.0049 -0.00218 -0.00287 0.01168
DPZ -0.02203 -0.00941 0.00638 -0.00631 0.00883 -0.01103 0.04513 -0.01636 -0.00414 0.00544
APA -0.01236 0.01061 0.03672 -0.01616 -0.02476 0.02594 0.02759 -0.01049 0.01441 -0.02629
BRO 0.00015 -0.01392 0.00216 -0.03724 0.01361 0.01063 -0.00923 0.02124 0.05274 0.01631
TSCO 0.00419 -0.01215 -0.00054 0.01559 0.02907 0.01943 -0.0013 -0.002 0.01412 0.00513
GWW -0.00012 0.013 0.01765 0.00422 0.01278 -0.01038 -0.03147 0.00429 -0.01119 -0.00628
MCD -0.00354 -0.00622 0.01196 -0.05563 -0.01835 0.00833 -0.01261 0.00858 0.00184 -0.00657
AAPL -0.01389 0.01503 -0.00056 0.02256 0.00125 -0.00913 0.08738 -0.01392 -0.01211 -0.02004
STLD 0.00874 0.00265 0.0048 -0.01467 -0.00599 -0.01793 -0.12124 -0.04741 0.02866 -0.02971
IT -0.00251 0.01134 -0.0099 -0.00657 -0.05494 -0.00485 -0.062 0.00107 -0.06147 0.03128
CCI 0.01594 0.03149 -0.00816 -0.01358 0.0021 0.01332 0.01093 0.01396 0.00996 -0.00656
SYY -0.06962 0.01115 0.01495 -0.00512 0.01555 -0.00237 0.00688 0.0224 0.00083 -0.00618
PFE -0.00483 -0.00166 0.00545 0.00697 -0.00727 0.00327 -0.00706 -0.00095 -0.00668 0.0095
LIN -0.00456 0.00343 0.00751 -0.00915 0.00298 0.0221 -0.00219 -0.01676 0.01564 0.0112
GNRC -0.00133 -0.0265 0.02272 0.06136 0.00431 -0.02049 0.00123 0.00385 0.01442 0.00909
PARA -0.03333 0.00401 -0.00214 -0.0054 -0.02067 -0.01028 0.04805 -0.01809 -0.00952 0.02065
AVGO 0.00378 0.00543 -0.00273 0.0106 0.0029 0.00941 -0.0037 0.0326 0.00912 -0.00976
BG 0.01817 0.00579 -0.00222 -0.00724 -0.02188 -0.02221 -0.00894 0.00544 0.00021 0.02681
MO 0.00374 0.00887 0.00078 -0.00929 0.00585 -0.00823 -0.01457 -0.00796 0.01034 -0.02116
TEL 0.00601 -0.00948 -0.00662 0.00095 -0.00662 0.00357 -0.00101 0.0062 -0.00447 0.00513
KMI 0.00445 0.00601 -0.00948 0.00272 -0.03353 0.00398 0.0611 -0.02741 0.00528 -0.00706
DTE -0.01197 0.0076 0.01795 0.00968 0.00612 0.01115 -0.01982 -0.0207 -0.00327 -0.00335
AVY 0.00218 -0.00177 -0.01446 0.0111 -0.00313 -0.00204 -0.00779 0.01474 -0.00159 -0.01014
VMC 0.00124 -0.01671 0.02395 0.01637 0.00841 0.01562 -0.00204 -0.00213 -0.0112 0.00144
ETN -0.00083 0.00143 -0.02358 -0.01721 -0.00075 0.01557 0.01277 -0.00414 0.00045 -0.00589
INVH 0.00213 0.00301 -0.0022 -0.00143 0.0213 0.00707 -0.00395 -0.01523 0.00779 0.00432
MRO -0.00651 0.00354 -0.03056 0.01247 0.00729 0.00138 0.0079 0.02852 -0.00196 -0.04855
LLY -0.015 -0.00591 -0.00416 -0.00629 -0.00035 0.00786 -0.00514 -0.00591 -0.02633 -0.00206
T 0.00458 0.00174 -0.00684 -0.0061 0.00608 -0.02604 0.00601 0.00309 -0.00105 -0.00683
ILMN 0.02534 0.02409 0.1135 0.04157 -0.02569 -0.00292 0.00453 -0.00225 -0.00153 -0.09354
VZ 0.01583 0.00055 0.00376 -0.00883 -0.00422 0.00063 -0.00334 -0.00495 -0.00791 0.01532
XOM 0.00414 0.00118 -0.00034 0.02076 -0.00315 -0.00214 -0.00108 0.00576 -0.01325 0.0008
CF 0.00556 0.02031 0.00333 0.00934 -0.03856 0.02372 0.01134 0.01192 -0.00657 0.01866
APD -0.00544 -0.00093 -0.01311 0.00138 0.01058 0.00342 0.01316 0.0106 0.00088 0.00262
CPT 0.03225 -0.03147 0.0126 0.01518 -0.02609 -0.00338 -0.00877 -0.00725 0.00422 0.00989
USB 0.02527 -0.07095 -0.00748 0.00426 -0.02126 0.00509 -0.00623 -0.0005 -0.00981 -0.0341
EFX 0.00676 0.01202 -0.00652 0.0 -0.00786 0.00347 0.03182 -0.03691 -0.00206 0.03361
NTAP -0.01389 -0.00673 0.00202 0.00097 -0.00861 -0.00025 -0.03182 -0.0022 0.01779 0.0
LUV 0.01202 -0.01349 0.01147 0.0 -0.01821 -0.00687 0.00663 -0.01111 -0.00754 0.01419
MLM -0.0124 -0.01445 0.00467 0.07043 0.00073 0.00243 -0.00369 0.01202 -0.02389 -0.016
TFX -0.01097 -0.00596 -0.0179 -0.016 -0.016 -0.0099 -0.02969 0.04023 0.04557 -0.01048
UPS 0.00489 0.00116 -0.00298 0.00828 0.00294 -0.00998 0.01711 0.00778 -0.00348 0.00862
PPL 0.02197 -0.0175 -0.00271 -0.02033 -0.00571 -0.00246 -0.00294 0.01077 0.0 0.00745
AOS 0.00036 0.00256 -0.0026 -0.01184 0.02033 0.00087 -0.01243 0.01775 0.00065 -0.00335
HD 0.00158 -0.01177 0.00133 0.00357 -0.00101 -0.01901 -0.00409 -0.03306 0.00528 0.01369
ORCL -0.01296 -0.00299 -0.00062 -0.00471 -0.02129 -0.00297 -0.00101 -0.00671 -0.03157 0.01599
BBY -0.01272 -0.012 -0.03126 0.0245 0.00361 -0.01806 -0.03203 0.0043 -0.00331 0.00503
MGM 0.00821 -0.05096 -0.06632 0.00835 -0.00477 -0.00419 0.01014 0.01268 -0.00063 0.0081
AON 0.01454 -0.00268 -0.01569 -0.00331 0.00109 0.00364 0.00522 -0.00828 0.00628 -0.04685
RTX -0.00164 0.00122 -0.0018 0.00911 0.00565 0.01034 -0.00201 0.01517 -0.00313 0.02743
AZO -0.00498 0.01755 -0.00568 -0.00048 0.01293 0.00513 -0.00715 0.00368 0.00604 -0.01242
DGX 0.00456 -0.00603 0.01343 -0.00154 -0.00644 0.00059 0.00084 -0.0022 -0.00706 -0.00382
TMUS 0.01777 -0.00134 0.0389 0.00456 -0.00101 0.02084 0.0008 -0.00683 -0.00382 -0.0191
NUE 0.02469 0.00803 0.02055 0.00795 -0.00045 0.01689 0.05121 0.0025 -0.03365 -0.00826
FSLR 0.00028 0.01224 -0.02101 -0.035 -0.05084 -0.07743 -0.00374 -0.00793 -0.03677 -0.01271
SEDG -0.02515 -0.00248 0.04403 0.01126 0.09381 0.01032 -0.01221 -0.04296 -0.06194 -0.04201
AFL -0.00272 0.012 -0.00056 0.00714 -0.00147 0.01858 -0.00984 0.02674 0.01512 0.00687
GD -0.00562 0.00243 0.01878 0.00397 0.00014 -0.00213 0.00025 0.01791 -0.00119 0.0337
WRK 0.00483 0.00624 0.01077 -0.02114 -0.00353 -0.00049 -0.01029 0.00057 -0.01276 -0.03218
INTU -0.01051 -0.06397 0.00257 0.0232 0.02717 -0.00857 -0.01332 0.00244 0.03847 0.00468
NSC -0.00086 0.00608 0.00113 -0.00504 0.01185 0.00254 -0.00554 0.02973 -0.00099 -0.01316
ICE -0.01191 -0.01065 0.0029 -0.01115 -0.02238 0.00033 -0.00422 0.01407 0.00401 0.01856
URI 0.041 0.00724 0.00241 -0.02199 0.00605 -0.00371 -0.00908 0.00876 -0.0264 -0.02099
VTRS -0.01001 0.00384 0.00072 -0.008 0.01806 0.01949 0.02941 -0.00107 -0.01068 0.0184
GEHC -0.01362 0.00559 0.00866 -0.01223 0.00816 -0.01244 0.0067 -0.03526 -0.00466 -0.02619
STT -0.02427 -0.01064 0.00109 0.00438 -0.01427 0.07224 -0.00712 -0.01468 -0.01792 -0.00263
SJM 0.00194 0.00452 0.01405 0.01306 -0.00184 0.00372 -0.01308 -0.00064 -0.00945 0.00346
TXN 0.02292 0.02269 -0.00517 0.01341 0.0021 -0.00342 -0.01402 -0.00459 0.01683 0.03579
L -0.01931 0.00966 0.0018 -0.00552 -0.00869 0.00466 0.01351 -0.0147 -0.01117 -0.00188
DHR -0.00092 0.01785 -0.0248 0.00706 0.01579 -0.00372 0.01195 -0.00096 0.00545 -0.00322
ES -0.0018 0.01491 -0.00417 0.00241 -0.00428 -0.00522 0.00185 0.0192 -0.00963 -0.0089
VTR 0.00356 0.00924 0.00954 0.0189 -0.00489 0.0169 -0.00533 -0.0104 0.04309 -0.0233
KVUE 0.00702 -0.0204 0.00702 0.01803 -0.00868 -0.01471 0.01845 -0.00115 0.00218 0.01459
XEL -0.00552 0.03367 -0.00152 0.01163 0.01692 0.006 -0.01168 -0.00366 -0.01278 -0.02951
PYPL -0.00813 -0.00459 0.02515 0.02657 -0.00451 0.00134 -0.00392 -0.04514 -0.01338 -0.01087
HSY 0.00304 -0.00107 -0.00581 0.00687 -0.01701 -0.0027 0.00496 0.00191 -0.01817 0.01397
PEG 0.0007 -0.02168 0.00201 0.02784 0.00048 -0.00322 0.00029 -0.01288 0.00597 0.00458
TRV -0.00382 -0.00193 0.0029 -0.00472 -0.00031 -0.01809 -0.00223 0.00273 -0.02268 0.04213
IEX 0.00115 0.01796 0.0 0.01661 -0.00329 0.00263 0.00565 0.00566 0.01682 0.00726
WFC 0.00381 -0.00173 -0.03144 -0.01375 -0.00664 0.00412 0.00153 -0.00284 0.00474 -0.01085
ADP -0.0018 -0.00626 0.01282 0.00672 -0.00112 0.0 0.00266 -0.00217 0.00156 0.00767
GIS 0.05777 -0.01388 0.00058 -0.01182 -0.00086 0.01023 0.0101 0.00559 0.00714 -0.00116
EQT -0.01572 -0.00991 0.00235 0.01261 -0.00032 -0.01111 0.00263 -0.01755 0.0713 -0.01146
MRK 0.01625 0.00817 -0.0023 0.00083 0.00376 0.01604 0.01297 0.00023 0.00178 0.00511
SWKS 0.0762 0.00066 0.03152 -0.02104 0.01272 -0.00249 0.03759 0.00276 0.00426 0.00127
COF 0.00525 -0.00571 -0.02975 -0.00766 0.00801 -0.00698 0.00671 0.02913 -0.00314 0.00604
AMT -0.04514 -0.00995 0.00333 -0.00661 -0.00757 -0.00804 -0.00136 0.01415 0.01793 0.00689
ABT 0.01077 -0.00911 0.00543 -0.00232 0.00133 0.03868 -0.01153 -0.00329 0.00053 -0.00151
UAL -0.02333 0.01319 0.02023 0.0 0.00789 -0.00355 -0.05265 -0.00474 -0.00551 0.04261
PAYC -0.00688 -0.01709 0.05184 0.00363 0.01369 -0.01352 0.01122 0.00164 -0.00402 -0.0166
TMO -0.00202 0.00247 -0.00727 0.00137 3e-05 0.00071 0.01428 0.0148 -0.00088 0.0146
GOOG -0.0116 -0.0105 0.01019 0.01891 0.00457 0.01428 0.00516 0.00171 0.00467 -0.02296
DLR -0.01637 0.02145 0.0 0.0143 0.00586 -0.0104 7e-05 0.01041 0.00123 0.03265
WMB -0.02119 -0.00378 0.01361 -0.00944 0.00579 0.00211 0.10078 0.01099 0.00505 -0.01646
EL -0.00939 -0.03236 -0.00333 0.00741 0.01617 0.01141 0.00234 -0.00513 0.00458 -0.0145
HAS 0.0 -0.00382 -0.0102 -0.00917 -0.00692 -0.02718 -0.00245 0.00895 0.00225 -0.01104
MSCI 0.00439 -0.02831 0.00347 0.01238 -0.01042 0.01032 0.00203 0.023 0.00633 0.02836
FDX -0.00596 0.00495 0.02015 -0.0146 -0.01027 -0.00192 -0.00896 -0.00287 0.00683 0.01461
INTC -0.00815 0.01357 0.00675 -0.01113 -0.01632 0.02058 -0.01004 -0.00373 -0.00431 -0.01732
FCX 0.02106 0.00903 0.02159 -0.00917 -0.00261 -0.03532 0.02367 -0.00541 -0.01556 -0.02276
BEN 0.00759 0.01587 0.01036 0.00948 -0.0067 -0.02289 -0.00372 -0.0109 0.00881 -0.04474
EMR 0.0149 0.01217 0.00688 -0.01321 0.00038 -0.00819 0.03823 0.02883 -0.00989 0.00543
MS 0.00265 0.05927 0.04 0.01788 0.01428 0.00389 0.00495 0.01982 -0.00974 0.01091
RJF 0.00129 -0.039 -0.01628 -0.01066 0.01885 0.00843 -0.0088 -0.03437 -0.01454 -0.04273
GEN -0.00545 -0.0185 -0.00481 0.00245 0.00382 -0.00475 0.02683 0.00782 0.00232 -0.00915
HWM 0.03938 0.05128 0.01356 -0.01509 -0.01824 0.00811 0.01614 -0.07566 0.02393 -0.055
CNP 0.00867 0.02086 0.00504 -0.00565 -0.00988 0.0054 0.00064 -0.00319 -0.01989 -0.00932
IDXX -0.00565 -0.00209 0.00124 0.00813 0.00527 0.0225 0.00245 0.00708 0.0128 0.01417
MMC 0.0068 -0.01989 0.0212 0.02107 0.0065 0.00122 -0.00315 -0.00932 0.01455 0.01357
CVS -0.00137 0.00744 0.00735 -0.00663 0.0058 -0.01738 0.00563 0.00637 -0.00533 0.00116
LW -0.00119 0.01813 -0.00152 0.01417 0.0026 0.00044 -0.00104 0.02993 0.01893 -0.01221
HIG -0.00957 0.01239 -0.00425 0.00369 -0.0062 0.00126 -0.01134 0.00592 0.00179 0.00703
QRVO -0.00101 -0.06363 0.05795 0.0278 0.00236 -0.00272 -0.00152 -0.02083 -0.00405 -0.01766
WMT 0.01043 0.0094 -0.00085 -0.01724 -0.0236 -0.00449 0.00755 -0.00055 -0.00036 -0.0056
PGR -0.00766 -0.00237 -0.01575 -0.00191 -0.01279 -0.00895 0.00368 0.00702 0.00299 0.00971
MNST 0.00916 0.0187 -0.00164 -0.00975 -0.00136 0.03021 0.00586 0.01629 -0.02201 0.02779
EVRG -0.02348 0.00898 -0.00866 -0.00144 -0.01426 0.01721 0.004 0.00528 0.00678 -0.00169
ALK -0.02126 -0.03713 0.05362 0.01661 0.01477 0.01913 0.00998 -0.01196 0.00549 0.00245
OKE -0.00124 0.0002 0.01048 0.00355 -0.01823 -0.0403 -0.0042 -0.00951 0.00904 -0.00504
CZR 0.01914 -0.0216 0.05419 -0.01171 -0.0116 -0.04357 0.027 0.02272 0.01756 0.01716
KO -0.00045 0.02019 -0.00462 -0.00169 0.00296 -0.0169 -0.00075 -0.00292 -0.00177 -0.02237
MPWR -0.00633 0.00663 0.0 -0.07053 0.00579 0.00571 -0.01467 0.0568 -0.00267 0.0086
WEC -0.00753 -0.00367 0.01041 -0.00152 0.00018 0.004 0.00139 -0.00569 -0.00113 -0.00242
DXCM 0.00808 -0.01459 0.01249 0.01911 0.0279 -0.05142 0.00953 0.04352 0.1137 0.01947
OGN -0.00035 -0.01353 0.00096 -0.00841 0.01453 -0.01316 -0.00721 0.06571 -0.02602 0.0003
PPG -0.00531 0.00013 -0.0023 0.00016 -0.01554 -0.00775 0.00182 0.00836 0.0019 0.00126
RMD 0.01405 0.01015 -0.00118 -0.00463 0.00082 -0.01323 0.0091 0.02046 -0.00295 0.01497
HUM 0.10691 -0.02344 0.00243 -0.0231 -0.01557 -0.0021 0.00582 0.01039 -0.01885 -0.0231
CARR -0.0239 0.0227 -0.04577 -0.0051 -0.00278 0.00461 -0.01075 -0.02432 -0.01156 -0.00131
GPC 0.00383 0.00397 0.05519 -0.00777 0.00505 -0.00192 -0.01917 -0.00663 0.01171 -0.00633
CSX 0.01255 -0.02011 0.00724 -0.00736 -0.01282 -0.00347 -0.00457 -0.01145 -0.00621 0.01219
ITW -0.00173 -0.00668 -0.00108 0.00646 -0.01859 -0.00494 -0.01016 -0.00379 -0.01269 -0.01601
REGN 0.00883 0.00646 -0.01715 -0.00233 -0.01254 0.00981 -0.01139 -0.01232 0.04238 -0.00217
K -0.0035 0.0006 -0.01598 0.03032 0.00577 0.00955 0.00452 -0.00103 0.00454 -0.00082
COR 0.00417 0.00345 0.01073 0.0081 -0.00684 -0.00094 -0.00788 0.01055 -0.02172 0.01042
POOL 0.00642 0.0126 0.01014 -0.01851 0.00164 -0.01713 -0.00923 0.00265 0.02083 -0.0076
NWL -0.00498 -0.00549 0.0064 0.01078 0.01947 0.00914 0.01571 0.01169 -0.00979 0.00538
SRE -0.01099 -0.01006 -0.00087 0.00036 -0.00133 0.00263 0.00343 -0.01642 -0.02574 -0.00048
CHD 0.00021 0.03643 -0.01484 0.00908 0.00607 0.01944 0.00803 -0.01073 0.00044 0.00944
WHR 0.00685 -0.0018 0.00457 0.03518 -0.00478 0.006 0.00209 0.00053 -0.02532 -0.03011
CTAS -0.01744 -0.00867 -0.01162 0.00188 0.04599 0.02445 -0.0019 -0.00015 0.01117 0.00951
WY 0.00056 0.00143 -0.00849 0.00036 -0.00952 -0.07412 0.01722 0.0219 -0.01925 -0.01105
CMA -0.00154 0.01629 0.05322 -0.01308 -0.0026 0.00571 -0.00837 0.01765 0.0508 -0.00495
CSGP 0.00285 -0.01139 -0.03202 -0.01591 0.05317 -0.00596 -0.00569 -0.00967 0.02329 0.0266
QCOM 0.00383 0.00446 -0.0154 0.00095 -0.01515 0.0196 0.01075 0.01303 -0.00457 0.00275
DG 0.01918 0.00186 -0.01604 -0.00248 0.0077 0.01877 0.00264 0.00272 -0.01286 -0.00392
MPC 0.02486 -0.01807 0.00081 -0.01062 0.0065 -0.01387 0.00734 0.00972 -0.00956 0.00034
RCL -0.00271 -0.00922 -0.01436 -0.00169 -0.08388 0.00411 0.06464 0.0038 -0.00631 -0.03881
FTNT 0.01073 0.02456 -0.01906 0.01344 -0.02323 -0.01665 -0.00815 0.00085 -0.00683 -0.01848
FMC 0.0134 -0.00594 -0.00765 -0.01353 -0.03216 0.02189 -0.01253 -0.00304 0.01872 -0.00084
CMI 0.00139 -0.00149 -0.06336 0.02828 -0.0067 -0.01216 0.00075 -0.00509 0.01589 -0.00019
TPR -0.01289 0.00361 0.00218 -0.01891 -0.00392 0.01874 -0.00053 0.00681 -0.00207 -0.00821
PLD -0.00272 0.00685 -0.00763 0.0068 -0.00592 -0.00257 -0.04266 -0.01889 -0.01182 -0.00134
CMS 0.0149 -0.00858 0.01573 -0.00404 0.01008 0.00318 0.01227 0.00591 -0.01928 0.01065
MAS -0.02152 -0.01983 0.02781 0.00291 0.02303 -0.00908 -0.0134 0.00767 0.0079 -0.01903
UHS 0.02798 0.00267 0.00262 0.00368 -0.00481 0.00893 0.01628 0.01295 -0.00597 -0.0029
PODD 0.02016 0.008 -0.01836 0.04463 0.00535 0.00171 -0.01473 0.00201 0.01522 0.002
ZBH 0.00997 -0.01238 -9e-05 -0.01953 0.00822 -0.00652 0.00561 -0.00629 0.00099 0.00347
CTSH -0.00117 0.02287 -0.00288 0.01827 -0.01227 -0.03563 0.00835 0.00607 0.01369 -0.00356
TECH -0.01411 0.02641 -0.0114 0.00064 0.0104 -0.00672 -0.0134 -0.01994 -0.02651 0.01095
RSG -0.06354 0.00884 0.00137 0.00658 -0.00347 -0.00975 0.00934 -0.00235 -0.00132 -0.00297
HII 0.00102 -0.00995 -0.00026 0.0498 0.00077 -0.03402 0.04642 0.00074 -0.00259 0.01478
WDC 0.01342 -0.01492 0.03958 0.013 0.03247 -0.01599 0.02455 -0.00494 0.00106 -0.01311
CLX 0.01916 -0.00115 -0.0161 0.0016 0.00533 0.00226 -0.01442 0.00653 0.00638 -0.00907
PM 0.07606 -0.00034 0.00294 -0.00395 -0.00856 0.00379 -0.03743 -0.00125 0.00033 -0.01514
SYF 0.01338 -0.00893 -0.0013 0.0 -0.00506 -0.00773 0.01625 0.01436 0.01119 0.00372
EBAY -0.04215 -0.00407 -0.00297 -0.00584 0.01503 -0.02366 -0.00206 -0.00162 -0.0052 0.01547
LYV 0.01902 0.00494 0.05108 0.01739 -0.00582 0.00625 0.016 -0.1054 0.00789 -0.00226
WBD 0.00674 0.01246 0.0031 0.00533 -0.00601 0.00468 -0.00446 0.00637 0.0076 0.0095
HCA -0.01706 0.00768 0.00208 -0.01579 -0.00623 0.00826 0.01701 -0.00031 0.00167 -0.00856
UNH -0.00434 -0.01362 0.02147 0.00382 0.01171 0.016 0.00602 0.02012 -0.00837 -0.0039
WTW -0.0241 0.00853 0.00704 0.01275 -0.00239 0.00769 0.01278 0.00336 -0.01168 -0.0052
TRGP -0.01545 0.00236 0.00211 0.00257 -0.05129 0.00449 -0.02792 -0.0025 -0.01554 -0.03732
WELL -0.01124 -0.00306 -0.01128 -0.00058 0.00547 0.0164 -0.01169 0.00797 -0.03211 -0.01277
ATO 0.01138 0.00207 0.00338 0.00247 -0.00142 -0.00599 0.01995 0.01536 0.025 -0.0003
AWK 0.01005 -0.00779 0.01231 -0.02036 0.01632 0.01355 0.00731 0.00917 0.00624 0.00035
JBHT -0.00242 -0.02736 0.00618 -0.0024 -0.01069 0.0048 0.00668 0.01012 0.00269 -0.00161
ALB -0.00879 -0.01223 0.01372 0.03782 -0.01508 0.02167 -0.04915 -0.00276 0.00116 0.03881
AAL 0.03624 -0.01262 -0.05666 -0.01143 -0.03122 0.04204 0.02586 0.03607 -0.00339 0.00512
MOS -0.07321 0.02841 -0.01365 0.03089 -0.01447 0.01357 0.02036 0.00464 -0.00576 -0.00802
OXY 0.00434 -0.00179 -0.01371 0.02191 -0.00885 0.00912 0.00089 0.02111 0.01201 -0.00967
CB 0.00272 -0.00096 -0.00214 -0.0153 0.0238 0.00053 0.02578 0.01221 0.01398 -0.00168
ELV -0.00585 0.00738 -0.00598 -0.0076 0.00935 0.00941 -0.02676 -0.00725 -0.00901 0.00175
MCK 0.00098 0.01864 0.00761 0.01337 0.0011 0.01123 0.01319 -0.0056 0.04468 0.00702
IBM 0.02669 0.01134 0.0018 0.00165 0.00091 0.00354 -0.01223 -0.00304 0.01141 0.02142
FE -0.0023 0.00205 -0.00216 -0.00072 0.00368 0.01 0.00923 0.00113 0.01222 -0.00141
NXPI -0.03898 0.00609 -0.03555 0.01112 0.00812 -0.00479 0.01967 0.02128 0.0081 -0.0346
VFC -0.02577 0.00996 -0.02799 -0.00157 0.0313 -0.00116 0.00391 -0.00215 -0.02263 -0.0096
CME 0.0007 0.00264 0.00637 -0.00339 0.00834 -0.02931 -0.00973 0.11815 -0.0042 -0.00096
AL 0.00648 -0.0577 -0.01018 0.0101 0.01128 0.03572 0.00064 -0.0486 0.00648 -0.00967
HPE -0.01232 0.00936 -0.00266 -0.00106 0.0021 -0.00904 -0.07537 -0.02548 0.00832 0.0369
V -0.00445 0.00111 0.00557 0.00771 0.0064 0.00925 -0.02122 -0.00189 0.00263 -0.00548
LKQ -0.0038 0.01413 0.01283 0.00198 -0.04062 0.00643 -0.01956 -0.0069 0.01848 0.01476
CTRA 0.02937 -0.01002 -0.01226 -0.00446 -0.00859 -0.00724 -0.02758 -0.01775 -0.01713 0.00815
ALL -0.00907 -0.01126 -0.00306 -0.0273 -0.00293 -0.00475 -0.00452 0.00195 0.0012 0.00882
PNR 0.01322 -0.02077 0.00058 -0.00055 -0.00276 -0.00941 -0.00992 -0.00117 0.00577 -0.00044
AAP -0.00904 -0.01424 -0.00347 0.01647 0.00696 0.06375 0.0131 0.00628 -0.01209 -0.00633
VRTX 0.00543 0.01194 -0.0069 0.01635 -0.00661 0.04582 -0.05728 0.01988 0.0112 -0.01676
KMX -0.00722 0.01704 0.01396 0.0017 0.04856 -0.05032 0.00263 -0.0171 -0.02823 -0.00764
PH -0.0111 -0.00339 0.0029 -0.02265 -0.00512 0.00467 -0.02108 0.00236 -0.00084 0.01663
AJG 0.02088 0.015 0.001 0.00303 -0.00477 0.00106 -0.01191 -0.01382 -0.00578 -0.00144
PEAK 0.06141 -0.00956 0.00267 -0.00776 0.00833 0.02909 0.00641 -0.01254 -0.0108 0.01157
STX -0.02831 0.01176 -0.00945 0.00694 0.08393 -0.01529 0.0 -0.01872 -0.00192 -0.01312
ADI 0.003 -0.01114 0.02866 0.0026 0.00378 0.00648 -0.00099 0.00953 0.00972 -0.00807
PKG 0.00965 -0.00317 0.02196 -0.01822 -0.0042 0.00034 0.02678 -0.00025 0.00918 0.00114
TDY -0.01237 -0.00197 0.0278 -0.00382 0.02716 -0.02614 0.0053 -0.00522 0.01901 0.00268
FICO 0.00792 0.0 -0.02366 -0.0089 -0.02934 -0.00202 -0.00044 -0.0006 -0.00575 -0.01114
SLB 0.00926 -0.00963 0.00257 -0.0463 -0.01107 -0.00882 -0.00278 -0.07742 0.01011 -0.02179
MSFT -0.00152 -0.00065 0.00352 -0.00564 0.00296 0.00076 -0.02076 -0.00175 -0.0008 0.01294
NWS 0.00459 -0.00922 0.00133 0.00307 0.01227 -0.01752 -0.00696 0.00667 -0.00646 0.0121
LH 0.01282 -0.00689 0.00502 -0.00448 0.01745 -0.00883 0.00139 0.01324 0.00867 -0.00373
HST -0.07143 0.01291 0.00095 0.01305 0.01727 0.01304 0.02972 0.00453 0.03096 -0.02977
NVR -0.00284 -0.0172 0.04542 -0.00714 0.01372 6e-05 -0.00519 -0.02439 0.0014 0.02175
EMN -0.00229 0.01613 -0.00933 0.01495 0.05983 0.00989 0.00159 0.08163 0.00177 0.01068
PRU 0.0114 -0.01478 -0.01537 0.00018 -0.0188 -0.02297 -0.00519 0.00362 -0.00477 0.00039
EXPE -0.03478 -0.00239 0.00384 -0.0079 0.00971 -0.03484 0.02815 0.09005 0.01392 0.03837
DIS 0.01417 0.00383 -0.01512 -0.00074 0.0037 -0.00719 -0.00955 0.00127 -0.01324 0.0212
FITB 0.03688 -0.01702 0.01018 0.01169 -0.08591 0.0 0.01485 0.0054 0.00572 0.0021
ESS 0.03287 -0.00472 0.00076 0.01038 -0.01915 -0.00307 -0.01244 -0.02019 0.00451 -0.00382
COO 0.01649 -0.00241 -0.00341 0.01272 -0.00199 0.00115 0.0019 -0.01537 0.0075 -0.00773
AME 0.01811 -0.01361 0.02139 -0.0007 0.01249 0.00026 0.00679 0.01595 0.00216 -0.00131
O -0.01996 0.01043 -0.00877 -0.00104 -0.01326 0.00457 0.00265 0.01188 0.00936 0.0088
ADSK -0.01297 -0.01458 -0.00989 -0.01424 -0.02691 -0.03517 -0.00154 0.02148 0.027 0.02068
PNC 0.00225 -0.00993 0.00344 -0.00687 0.00459 -0.00539 -0.004 -0.0124 0.00427 -0.00337
TROW -0.01538 0.00159 -0.04671 0.02013 0.0339 -0.00071 0.02427 0.00191 0.02653 -0.02265
MRNA 0.04259 0.05038 -0.04254 -0.01428 0.00043 -0.02959 0.01423 -0.05682 -0.01338 -0.05739
TDG -0.00073 -0.0254 0.00209 -0.00723 -0.00436 0.01138 -0.00288 -0.00037 0.00257 0.02729
ADM -0.00485 -0.00313 -0.00069 0.01114 -0.02461 -0.00393 0.00367 -0.03023 0.02161 0.00285
AXON 0.00051 -0.00913 -0.00788 -0.02336 0.00763 0.02194 0.02932 -0.00408 -0.08629 0.02039
LDOS 0.00725 -0.04503 0.00275 -0.00461 0.01634 0.03391 0.01077 0.07143 0.00657 0.00052
SNA 0.00393 -0.01722 0.0024 -0.10214 -0.02295 0.02008 0.00378 -0.01934 0.00536 -0.00154
DD -0.0017 -0.0285 0.02033 -0.01448 -0.0053 -0.01154 -0.00748 -0.00028 -0.01858 -0.0542
EIX 0.0083 -0.0054 -0.01425 0.02089 0.01031 0.0011 -0.00817 -0.01125 0.00046 -0.00949
SHW -0.0009 -0.02411 -0.00382 0.00761 0.00613 0.00189 0.01323 0.00505 -0.00176 -0.01984
NCLH 0.01414 0.01089 0.0039 0.02452 0.0016 0.01344 -0.01366 0.00611 0.00117 0.00793
FTV 0.02584 -0.0175 0.02104 0.00229 0.00826 0.01096 -0.00454 0.01337 0.002 -0.0015
JKHY -0.00838 0.00758 -0.00169 0.00218 -0.00713 -0.00788 0.00026 -0.0117 0.00215 0.00395
DAL 0.0008 -0.00551 -0.01333 0.0 -0.01546 0.0314 0.03474 -0.01252 0.00155 0.00409
MCHP 0.01257 -0.01082 0.00567 -0.00976 0.00739 0.02011 -0.00835 -0.01195 -0.01805 -0.00055
SO 0.00608 -0.01901 0.01311 -0.00082 -0.00046 -0.00391 -0.00348 -0.01293 0.02034 -0.01063
CCL -0.01871 0.00187 -0.0078 0.00174 0.00917 -0.01091 -0.00556 -0.05416 0.00801 0.0
AES -0.00878 0.03635 -0.00401 0.00846 0.00688 0.01754 -0.00862 0.00036 -0.02 0.02021
ZTS -0.00368 0.01007 -0.00099 -0.00273 -0.00319 -0.00168 -0.01886 -0.00455 0.00335 -0.00952
ROST 0.00135 -0.01176 -0.0029 0.00169 -0.00935 0.00619 0.00158 -0.00799 0.00077 0.01722
NDSN -0.02755 0.00184 0.00611 -0.05256 -0.0088 -0.02881 0.02017 0.01438 -0.00375 -0.03719
DOV 0.00453 -0.02528 0.03395 0.0048 0.0 0.01576 -0.01524 -0.00304 0.00685 0.00101
ORLY -0.00017 0.00828 0.00059 -0.01541 -0.00481 -0.00614 -0.00995 0.01083 0.00183 -0.00091
XYL 0.00587 -0.01066 0.01754 -0.03794 0.00027 0.01184 0.01427 -0.00278 0.00059 -0.00775
COST 0.00095 -0.00441 -0.00043 0.01163 -0.0046 -0.00268 0.02239 -0.00294 0.00129 -0.00637
EPAM -0.02617 0.01318 -0.00217 -0.05637 0.05793 -0.00532 0.00918 -0.0304 -0.0255 -0.01289
BK -0.00633 -0.00971 -0.0047 0.00043 0.0012 0.00541 0.02059 -0.00378 0.00416 0.00373
MTCH 0.01695 0.01444 -0.02649 -0.01157 -0.03787 -0.00818 0.00571 0.01242 -0.02711 0.01652
ADBE 0.00113 -0.00325 0.00169 -0.00596 -0.00067 -0.02082 -0.01 -0.00193 -0.00611 -0.00223
PEP 0.0018 -0.01652 0.01135 -0.00225 -0.00105 -0.01127 -0.00491 -0.01223 -0.0078 0.01648
WAB -0.04724 -0.00903 0.02978 -0.01179 -0.02223 -0.00453 0.00995 -0.0121 -0.00025 -0.01854
VLO -0.02704 0.01012 -0.00753 0.0192 -0.00441 0.0096 0.02901 0.0232 0.04735 -0.00299
LYB 0.03058 -0.00249 -0.01589 0.0035 0.00389 -0.01587 0.02928 0.01682 0.00815 -0.00034
DLTR 0.0054 -0.00064 -0.01146 -0.00689 0.00584 0.03883 0.0 -0.02174 -0.02168 0.00248
KIM -0.00898 -0.02468 0.00383 -0.0026 0.00904 -0.01788 0.01999 0.00531 -0.00223 -0.01185
HON -0.01324 0.00763 0.02001 0.00552 0.01856 -0.00578 -0.01154 -0.01255 0.00301 -0.00498
HPQ 0.01946 0.00286 -0.00674 0.0 -0.01057 0.00151 -0.01372 -0.00506 -0.01502 0.01773
TER 0.02262 0.04261 0.03862 0.09711 -0.00526 -0.03371 -0.00543 -0.01849 -0.02546 0.01019
CEG -0.01679 0.0312 -0.00763 0.01982 0.00398 0.00803 0.01933 0.01178 -0.00141 0.00398
IRM -0.02624 0.05109 -0.00603 0.01718 0.00368 -0.00854 0.00708 0.00239 0.00625 0.00427
BAX -0.02288 -0.0014 -0.00062 -0.00337 0.0 0.01428 0.00318 -0.00733 -0.00292 0.00137
MU -0.02269 0.00516 0.00623 0.0195 0.0104 -0.01269 0.02349 0.01739 0.0027 0.0
KR -0.0022 0.01244 -0.00254 -0.01546 -0.01368 0.0066 0.00158 0.01439 -0.01022 0.01728
REG -0.00404 -0.01221 -0.07052 0.00389 0.00907 0.02524 -0.00534 0.00995 0.00189 0.00184
WBA -0.02302 0.00394 -0.00805 0.00577 0.00256 0.01101 -0.00288 0.00286 -0.01378 -0.01373
NFLX -0.0131 0.00427 0.02449 -0.00511 -0.02809 -0.04742 -0.0073 0.01669 -0.00699 -0.02822
CBRE 0.00526 -0.02455 0.00308 0.00308 -0.03031 0.0134 0.01494 -0.01018 -0.01778 -0.00746
DHI -0.01111 0.0116 -0.03729 -0.00705 -0.02943 0.00626 0.01208 0.00868 -0.06186 -0.00506
EQIX -0.0099 -0.0315 0.00873 -0.00411 0.01827 -0.02105 -0.02632 0.00559 0.00463 -0.00782
STE -0.01346 -0.0023 0.0361 -0.01827 -0.00518 -0.00696 -0.01279 0.0015 -0.08587 0.00707
CL 0.00942 -0.00767 0.00137 0.0071 -0.00662 0.00883 0.00524 -0.00895 -0.00501 -0.0016
J 0.01793 -0.02324 -0.00888 0.00463 -0.02532 0.0076 0.00418 0.00025 -0.00145 0.01428
SWK 0.01513 -0.00619 -0.00488 0.04292 -0.01694 -0.00076 0.00462 -0.01349 -0.02229 0.00511
TSLA 0.00659 0.0382 -0.00297 -0.02612 0.05081 0.02619 -0.00869 -0.01241 -0.0066 -0.00572
AMZN 0.00788 -0.01375 -0.03343 0.0 -0.00017 -0.0631 -0.01767 -0.00857 -0.00805 -0.01086
FIS 0.0269 0.01109 -0.02606 -0.01993 0.00386 -0.00328 0.00761 -0.02676 -0.01655 0.0036
GPN -0.00956 -0.00236 0.0002 0.0045 -0.02514 0.0307 0.01929 -0.01867 0.00405 0.00386
LMT -0.0118 0.00019 0.00509 -0.00716 -0.00574 -0.0033 0.00703 0.00491 -0.00025 0.01396
XRAY 0.01429 0.00658 0.01417 -0.02339 -0.00188 0.00399 -0.00372 -0.03759 0.0102 0.00337
ROL 0.01626 -0.01431 -0.01649 0.00382 -0.00212 -0.00045 -0.00398 -0.00089 -0.01094 0.05344
HLT -0.0059 0.00309 -0.00991 0.01018 0.00278 0.0133 -0.0246 -0.00084 -0.01664 -0.00504
KMB -0.00756 0.00371 -0.0063 -0.02573 0.01033 -0.00514 0.00829 0.00269 -0.0038 0.00238
BSX 0.01619 0.01439 -0.01608 0.03094 -0.00604 -0.00381 -0.00359 -0.00082 -0.01354 0.00225
CINF 0.00188 -0.00165 -0.01171 0.01215 -0.00098 -0.01296 -0.00291 -0.00681 -0.01279 0.00362
KLAC -0.00304 0.00082 0.0273 0.0011 -0.00265 0.01412 -0.0175 -0.0096 -0.02047 -0.00759
C -0.01843 -0.00168 0.00474 0.002 0.00312 0.00254 -0.00934 0.00043 -0.01403 -0.01288
F 0.00969 0.00435 0.0047 -0.00727 -0.01046 0.00738 -0.00477 -0.00846 0.01345 -0.00137
FLT -0.01655 0.016 -0.01967 -0.01148 0.03133 0.00647 0.0074 -0.00097 0.00244 -0.07816
KEYS 0.00692 0.00188 0.03384 0.01917 0.03024 -0.00841 -0.005 -0.01154 -0.02822 0.02112
AEP -0.00431 -0.0003 0.00617 0.00991 0.04068 0.00298 0.00242 -0.00538 -0.00426 0.01164
AEE 0.00018 -0.00021 -0.00843 0.00287 -0.00962 -0.00922 -0.00024 0.00983 0.00779 0.00517
ETR -0.0006 0.01233 0.01496 0.00807 0.00425 -0.00822 -0.00442 0.02045 -0.00883 0.00018
JCI 0.02106 0.00839 -0.00627 -0.01702 0.0037 0.02518 0.00717 -0.01045 0.01152 -0.02123
CDW 0.00513 -0.0113 -0.0145 0.00344 0.00875 -0.00055 0.00102 0.00537 -0.00699 -0.01305
ULTA 0.00986 0.011 -0.0058 0.02548 -0.05145 0.0138 -0.00662 0.00112 -0.00697 -0.01006
ACN -0.00915 -0.00699 -0.0104 -0.01646 0.00911 -0.00042 0.0039 0.00324 -0.00297 0.0047
CRL 0.02845 0.0052 0.01923 0.00057 -0.00383 -0.00659 0.01439 0.00703 -0.01205 0.00991
ODFL -0.0116 0.03233 -0.01985 -0.02083 -0.00509 -0.02769 -0.00546 -0.0101 -0.01991 -0.00098
TJX 0.00882 -0.00116 -0.01878 -0.01373 0.03219 -0.00403 0.00813 0.00493 -0.00082 0.00199
FOX -0.00945 -0.00791 0.01905 -0.02803 0.01905 0.013 -0.00884 -0.01089 0.04859 -0.01978
BMY 0.00804 -0.00538 -0.00248 -0.0384 0.01305 0.00574 0.00575 0.00092 0.00462 0.00431
ANSS -0.0068 -0.00581 0.00522 0.01375 0.01276 0.04254 -0.01629 -0.0182 0.00286 -0.01517
MAR 0.00546 -0.014 0.02438 -0.00776 0.01277 -0.01191 0.03615 0.00263 0.00399 0.00916
YUM 0.00654 0.02113 0.00109 0.00367 0.00136 -0.00316 -0.01245 0.01891 0.01389 0.00711
NOC 0.01466 -0.00088 -0.00212 0.00356 0.00603 0.02633 0.02241 -0.01308 0.00507 0.01319
GOOGL 0.00601 -0.00391 -0.01737 0.00179 0.01685 0.00031 -0.00561 -0.00326 0.00321 -0.00408
CPRT 0.01793 0.00548 -0.00954 0.01085 0.12925 -0.02108 -0.03055 -0.02074 -0.00158 0.00029
MKTX -0.00412 -0.01463 -0.09508 -0.03049 0.00294 -0.03452 0.00311 0.00409 0.01708 0.02079
BIIB 0.05745 -0.02917 -0.00083 0.01562 0.01029 -0.00981 0.00823 0.04053 0.03141 0.00082
BF-B 0.02204 -0.00235 0.00681 -0.00367 0.00485 0.00104 -0.00684 0.01028 0.00881 0.00508
PSX 0.0001 -0.00152 0.00866 0.01512 0.02386 0.02695 -0.02547 -0.00387 -0.00701 -0.0491
HSIC 0.00087 -0.01171 -0.00447 -0.01367 0.01191 -0.015 0.00519 0.00367 0.00984 0.0203
CAH -0.0086 -0.01068 0.00452 0.00232 0.00703 -0.02543 0.02017 0.00042 -0.00215 0.0129
INCY 0.00556 -0.03302 -0.03283 -0.01698 -0.05305 -0.00377 -0.00061 -0.00366 -0.01149 -0.0038
FANG 0.00228 0.03093 0.09252 0.01 0.01201 0.03762 -0.01294 -0.00846 -0.14569 0.03768
MHK 0.01553 0.01357 0.00288 0.00263 0.02087 0.01471 -0.00689 0.06137 -0.01296 0.00739
TAP 0.00795 0.0209 0.00645 -0.00205 0.0051 0.00959 0.00057 -0.01186 -0.00518 0.00916
OTIS 0.00059 0.00522 -0.01011 -0.03311 0.00427 0.02525 0.01219 0.00274 0.00098 -0.00979
TSN -0.01425 0.02069 0.00447 0.01384 0.00769 -0.01464 -0.01235 0.00105 -0.01636 -0.0073
DUK -0.00105 -0.00933 -0.00788 -0.00225 -0.00427 0.00379 -0.00942 0.00011 -0.0063 0.00364
MTB 0.00125 -0.0054 -0.01168 0.08062 0.00394 -0.01007 -0.00058 -0.00412 0.00315 -0.0083
LNT -0.01843 -0.01822 0.00122 0.00414 0.01246 -0.00719 0.0117 0.00059 0.00106 -0.00868
GL 0.00021 -0.00186 -0.0125 -0.00915 -0.01667 -0.00766 -0.0364 0.00172 -0.00668 0.0036
CVX -0.05696 -0.00213 -0.00075 0.03855 -0.01424 -0.0058 -0.0052 -0.0068 0.01216 -0.01449
EW -0.00905 -0.02308 -0.01542 -0.00604 -0.0008 0.00082 0.0023 -0.01386 -0.00304 0.00725
CRM -0.0053 0.01582 0.04366 -0.01004 0.00412 -0.02219 0.0411 -0.01158 0.01649 0.01196
ACGL 0.00122 0.00678 -0.00101 0.00078 0.00169 0.00662 0.00039 -0.00294 0.00343 -0.00469
UNP -0.00746 0.01377 -0.02125 0.00322 0.0077 -0.02207 0.00204 -0.01395 0.01304 -0.0002
AXP -0.01053 0.00295 -0.03173 -0.00514 0.01765 0.00621 -0.07709 -0.00704 0.07229 -0.00347
PXD 0.00645 0.02912 -0.00123 -0.01302 -0.01178 -0.01333 -0.0199 -0.00668 -0.00817 0.01166
HRL -0.00055 -0.00811 0.00367 -0.07519 0.00428 0.0 -0.00372 -0.00546 0.00157 -0.01288
TT 0.00386 -0.01209 -0.09601 0.00115 0.01891 0.00097 0.01324 -0.00218 -0.02263 0.03614
IVZ -0.00164 0.00284 0.01183 -0.02561 0.01448 -0.0181 -0.01962 0.00041 0.004 -0.0012
BBWI -0.04002 -0.00728 -0.0132 -0.00388 -0.00298 0.03471 0.0 -0.03267 -0.01417 0.00907
BDX -0.00502 -0.00303 0.00153 0.01531 0.0021 0.01139 -0.00793 0.01394 -0.01958 0.01133
PCAR -0.02129 0.01218 -0.00351 0.00538 0.02472 0.00081 0.01831 0.00561 0.00655 -0.01452
PCG 0.00891 0.01887 0.00071 -0.01663 -0.00559 0.00082 -0.01213 0.0194 -0.01086 -0.0082
DVN -0.04883 -0.03381 0.00614 -0.04588 0.0024 0.01165 0.00015 -0.00563 -0.03097 0.02102
JNJ 0.001 -0.01071 0.00154 -0.00331 0.00442 0.00209 0.00395 0.00621 -0.00187 -0.00558
GILD 0.00604 -0.0258 -0.07367 0.01373 -0.01781 -0.00334 0.01684 0.02898 0.00504 0.02009
COP 0.00979 0.0113 0.02732 0.01842 -0.02988 0.00691 -0.0097 -0.00019 0.00639 -0.01212
MDLZ -0.00674 0.00196 0.01188 -0.02648 -0.00141 -0.00325 0.00295 0.00306 -0.02742 -0.01169
ARE 0.01874 -0.00448 0.00139 -0.01775 0.00059 0.00289 0.0122 -0.02084 -0.0312 -0.01594
MSI -0.00507 0.00499 0.01897 0.01226 0.00713 0.00379 0.01049 0.00567 -0.00627 0.00703
A 0.00071 0.0037 -0.01265 -0.01618 -0.01203 -0.01498 0.03255 -0.00929 -0.00019 -0.00129
ALLE -0.00912 -0.02417 -0.00818 -0.00505 0.00315 0.01073 -0.00424 -0.01136 0.03778 -0.00125
AMP -0.0124 -0.04548 0.00932 -0.05775 -0.02744 0.00413 0.01091 0.02471 -0.01306 0.01601
CDAY -0.01333 0.02285 0.00576 0.03702 0.03687 0.00547 0.01885 0.0065 0.01031 -0.01389
DXC 0.00862 -0.0243 -0.00353 -0.01759 -0.0075 0.01886 -0.03197 -0.00086 0.00613 -0.0077
PTC 0.00481 -0.0694 0.03516 0.02088 -0.0077 -0.02174 0.0062 -0.0185 0.07018 -0.01323
HOLX -0.01279 0.01341 -0.00919 0.00709 0.00709 -0.01317 0.0095 0.01605 0.01845 -0.01174
BXP -0.01282 -0.01717 0.00864 -0.12782 0.00455 0.01138 -0.02237 -0.00366 -0.04723 0.00608
GE -0.03973 -0.01037 0.00706 -0.0015 -0.01532 0.02905 0.0038 0.00439 0.00947 0.03336
KDP -0.01908 -0.06846 0.00057 0.0075 -0.00639 -0.00786 0.0021 0.01067 0.00105 0.01519
SBUX -0.01341 0.01248 0.00742 0.00918 -0.00595 -0.00074 -0.00908 0.00168 0.00873 0.01006
TYL -0.00776 -0.01961 0.01434 0.00549 0.01039 0.00863 -0.02566 -0.0184 0.00307 -0.00671
MAA 0.00817 0.01646 -0.00019 -0.00587 -0.00112 -0.00393 0.01161 -0.00378 0.00257 -0.00433
HBAN -0.01287 0.0187 -0.00125 0.0092 -0.02174 -0.00468 -0.01732 -0.02399 0.03469 -0.02654
ALGN -0.00333 -0.02789 -0.01609 -0.03348 -0.00451 -0.00965 -0.00208 0.01581 0.03789 0.00437
PANW 0.01019 0.03824 0.01885 0.01661 -0.002 -0.0326 -0.0047 -0.0328 -0.00804 0.00911
CBOE 0.00455 0.00629 -0.00115 -0.00562 0.01104 -0.00273 0.01221 -0.00812 0.00922 0.00134
AMGN 0.00905 -0.01441 -0.00574 0.00808 -0.00473 -0.0059 0.01569 0.00138 0.00754 -0.01914
CTLT 0.0172 0.01276 0.02157 -0.01306 0.01254 0.00602 0.0075 0.00249 0.00395 -0.01991
BWA 0.01107 0.01319 0.00217 -0.00459 -0.01109 -0.0327 -0.02097 -0.04801 0.00434 -0.00512
SNPS -0.00166 0.01101 -0.00043 -0.01016 0.04413 -0.00205 0.0229 0.0043 0.00031 0.03472
PG 0.00058 -0.00017 0.00522 0.00518 0.00095 0.00398 0.00599 -0.01198 0.00437 0.00118
ZION 0.01577 0.09679 0.00648 -0.00282 0.01171 -0.0058 0.01902 -0.00264 -0.01956 0.11166
LNC -0.01196 -0.0004 -0.00507 -0.01775 0.00441 -0.01313 -0.00142 0.00664 -0.01242 -0.02554
KHC 0.00128 -0.00356 0.01145 -0.01672 -0.00945 -0.00943 -0.01944 -0.00596 0.00259 0.02419
TGT 0.00357 0.00496 0.01275 -0.03244 0.00283 -0.00088 -0.00486 -0.02523 0.00452 0.00913
WYNN -0.0083 0.00398 -0.02168 0.01251 -0.03434 0.01664 0.00019 -0.03169 -0.02156 0.03282
UDR -0.00978 0.00208 0.01372 -0.00221 -0.00932 0.03364 0.00678 -0.01848 0.00956 0.00351
LEN -0.02705 -0.01322 0.00176 0.00362 -0.03897 0.03319 -0.00494 -0.03168 0.03847 -0.03962
TTWO 0.00245 -0.00698 0.01957 0.05616 -0.01792 0.03314 0.02761 -0.00064 0.00819 0.03335
AMD -0.05388 0.00364 -0.02105 -0.0271 -0.00933 -0.00743 0.00373 -0.00174 0.0287 -0.01367
VRSN -0.00137 0.00227 -0.0303 0.0116 0.00634 -0.00889 0.02125 -0.00097 0.00604 0.00867
NDAQ 0.00416 0.00382 0.00548 0.01117 -0.01885 -0.00914 0.00294 -0.01465 -0.01829 -0.00803
TFC 0.00662 -0.03063 -0.00209 -0.03039 -0.00042 0.00601 0.0 -0.00036 0.01155 0.0074
SCHW -0.00507 0.0254 0.00939 -0.0306 0.02485 -0.05528 0.0 0.01565 0.01106 0.01298
PWR -0.04093 -0.00817 -0.01048 0.01989 -0.01201 0.01112 -0.00482 0.01199 -0.01128 -0.01117
MOH 0.03257 0.00994 0.01181 0.00664 0.01202 0.02049 0.00996 -0.00655 -0.0148 0.00734
NEE 0.00467 0.00319 0.00873 0.01455 0.00128 0.00111 -0.00509 -0.01207 0.00038 0.00109
BR 0.01603 -0.00572 -0.00287 0.00258 -0.00083 0.0478 0.00665 -0.02561 0.00262 -0.00074
NWSA 0.00294 -0.01386 -0.00315 0.01298 0.00168 -0.0113 -0.00374 0.0 -0.00213 -0.00258
MCO -0.01077 -0.00516 -0.00257 -0.00576 -0.00389 -0.02939 0.0133 0.01478 0.00447 -0.02967
PSA -0.00676 -0.00799 -0.02738 0.00879 -0.00477 0.05558 0.00396 -0.00686 -0.00816 0.00357
WST -0.0042 -0.01825 0.00756 -0.01184 -0.01299 -0.02256 0.02231 -0.01017 -0.01813 -0.00048
CHRW 0.01059 -0.002 0.0039 0.00355 -0.02354 -0.00176 -0.0084 0.03591 -0.00198 -0.00065
AKAM -0.00569 -0.04018 0.00956 0.00626 -0.01158 0.04152 0.01068 -0.00315 0.0035 -0.00422
BAC -0.00369 0.00405 -0.06279 0.04986 -0.00765 -0.0045 0.01498 0.01278 -0.00245 -0.00584
ISRG -0.01082 -0.0132 0.00683 -0.00636 -0.00948 -0.01527 0.05055 -0.01441 0.01191 -0.01602
ROP 0.00091 -0.0046 0.00125 -0.01545 0.00127 -0.0059 -0.00314 -0.03724 0.0 0.00625
SPG -0.01977 0.01005 -0.01113 -0.01895 0.00647 -0.00408 -0.00186 -0.01176 0.00335 -0.00513
VRSK 0.00106 -0.0177 0.0082 0.01913 0.00539 -0.00558 0.0043 -0.00271 0.00323 0.00234
ETSY 0.01474 0.01136 -0.00169 -0.04813 0.0299 -0.02963 -0.04274 0.02569 -0.02831 0.00129
GM 0.01101 -0.04794 -0.01176 0.01697 -0.00928 0.00301 0.01167 -0.01869 0.07051 0.00892
CNC -0.0154 0.00244 0.0 -0.01844 -0.00663 0.01732 -0.01882 0.05187 -0.00828 0.0071
BRK-B -0.01108 -0.003 0.00301 0.00734 -0.00447 0.01199 0.01141 -0.00715 -0.00276 0.01531
AIG 0.00892 0.01447 0.00628 -0.01684 -0.00591 -0.00376 0.00176 0.00309 -0.01714 0.00318
LRCX 0.00097 -0.00632 0.01503 -0.00444 -0.02513 -0.0199 -0.05508 0.03462 -0.00675 0.00338
SBAC 0.002 0.03605 0.03811 0.01947 -0.02655 0.00836 -0.0047 -0.00504 -0.01686 -0.01097
RVTY -0.00664 -0.00786 -0.00125 -0.01377 0.01578 0.00873 0.00676 -0.02661 0.02856 -0.00154
PHM -0.01371 0.00779 -0.00612 0.01135 -0.00903 0.07754 -0.01872 0.00928 -0.01236 0.02653
PAYX 0.00139 0.00721 -0.0234 0.00416 -0.00639 0.00106 0.00015 0.02413 -0.00236 -0.01179
RF -0.00423 0.00982 -0.00177 -0.03035 -0.01128 -0.00655 0.00664 0.00057 -0.009 -0.07255
DFS 0.00823 0.00652 0.00655 -0.00233 0.01588 0.01187 -0.00667 -0.01281 0.00302 -0.0122
WRB 0.00766 -0.03299 -0.00692 -0.01962 0.00735 -0.00183 -0.01184 0.00889 0.00112 -0.00575
EQR 0.00859 -0.00957 -0.01505 -0.00232 -0.00188 -0.02511 0.01067 -0.01055 -0.0026 -0.00796
ECL -0.01658 0.00465 0.01033 -0.01081 0.01164 0.00738 0.0012 -0.00528 -0.00311 0.00357
NRG -0.00271 -0.00259 -0.00466 -0.00294 -0.00847 0.00229 -0.04098 -0.00579 0.00036 0.01642
SYK 0.00162 -0.0035 -0.00044 0.01828 -0.00748 -0.0083 0.01473 0.01052 -0.01283 -0.00206
MA -0.02648 0.00924 0.0487 -0.00396 -0.02423 -0.02991 -0.00341 -0.00918 0.1075 0.00544
GRMN 0.00425 0.01915 0.02399 0.05747 0.00103 -0.0092 -0.0109 0.03023 -0.0001 0.01206
CAG 0.00043 -0.0064 0.00207 0.00389 0.00378 -0.01425 0.00867 0.00618 -0.00683 0.00104
CDNS -0.01464 -0.00796 -0.00226 -0.00484 0.0006 -0.00924 0.01635 -0.0003 0.00662 0.01035
GLW -0.01885 0.00826 0.01411 0.00135 0.01884 -0.07778 0.01777 -0.00174 0.02863 0.01469
DOW -0.00543 -0.01648 0.01097 -0.00635 -0.01529 0.01433 0.06007 -0.00911 -0.0031 -0.03128
